3 14 4 -3 5 -4 24 -18 -26 -36 -28 -26 -6 1 -17 -9 -18 -13 -13 -4 -2 -5 11 -11 -23 -10 -18 -17 -8 10 5 -8 -11 2 14 -11 -1 1 -1 13 2 5 6 8 10 20 13 21 15 32 26 10 0 4 -24 3 -6 -5 43 4 -30 33 18 23 13 13 -6 19 -6 16 -15 9 9 -18 -9 12 29 5 -19 11 -27 -20 -16 -25 -20 3 -19 12 -5 4 -23 1 -30 -7 16 -23 -14 -18 -8 -35 -12 8 -6 33 12 20 9 -3 5 -31 -47 -1 0 6 -6 -18 25 5 4 -8 13 -4 32 2 1 15 -16 -25 -4 -9 -23 -1 -7 -9 -55 -20 -33 -8 -4 -25 -4 -18 -20 -39 -16 -22 -13 -11 4 -4 3 13 -41 19 0 20 7 -6 -26 -9 -13 32 14 7 16 -22 -5 -27 5 0 18 20 11 -20 25 -30 -14 12 19 -19 -4 2 30 6 9 15 9 9 4 12 -1 15 20 -8 12 21 24 6 -7 18 -25 8 10 9 17 -1 -11 -2 -24 15 -7 -2 6 -1 7 -4 5 23 22 -7 -14 -22 1 21 -10 23 -13 -24 -17 15 5 -22 8 4 12 7 -10 16 12 15 -2 -4 -4 -3 -16 2 -28 5 -16 -12 1 5 4 -14 33 -9 7 18 -4 -6 5 5 -33 8 -1 2 -4 -27 -26 21 0 7 1 11 1 -6 7 -1 -20 7 2 26 -22 14 8 5 36 -4 -12 13 -10 16 3 -22 -13 2 3 7 -19 15 -24 -21 -17 -9 -30 16 17 -27 0 16 3 -11 -11 32 22 24 -2 -23 -8 -2 -13 -23 -25 -33 -4 -30 -16 -31 -39 -14 -3 -23 10 20 19 -1 10 13 -22 -9 -12 1 5 3 12 -23 14 6 -10 16 3 -23 -13 -20 5 -16 -15 6 -10 6 -4 26 1 10 14 19 23 21 -21 9 -7 -6 16 8 -9 -3 -4 -5 20 8 -17 -2 23 19 -20 1 -10 -6 -8 -4 -10 16 -25 10 -18 8 3 -3 0 23 -12 23 -1 0 -27 14 3 -21 -17 -25 32 -8 2 14 10 6 14 -11 12 11 15 9 -16 13 45 4 -24 -28 26 4 11 -6 -8 -10 -6 7 5 -6 22 -34 1 13 3 0 -9 10 10 -34 33 18 23 -33 1 20 16 -21 2 0 -22 -15 -4 1 -11 -18 9 3 -8 25 4 -5 -21 -7 -9 20 6 48 10 28 21 -28 30 11 11 -12 -32 11 5 8 -31 39 -18 23 21 -30 -24 5 20 -39 16 6 29 -18 -41 5 18 5 -5 -18 0 12 -10 -3 11 5 7 12 -15 -1 0 14 -5 -6 0 16 15 13 21 12 16 6 -2 -4 -3 0 6 20 -16 17 -36 11 -15 -30 4 -5 2 18 3 -20 4 35 20 1 14 -18 -30 5 -10 14 -12 -26 -1 20 -9 33 11 -1 8 -17 5 8 25 8 -13 3 0 6 -5 16 -17 14 -13 -12 -3 19 -13 7 2 5 -12 23 -19 7 9 25 24 -13 2 20 9 29 -17 -16 -17 11 7 8 25 -6 7 -7 8 25 10 -12 -3 -22 -43 21 1 -5 3 -2 -4 -5 -5 -29 -1 20 -18 -2 1 2 -16 36 26 -23 -1 -14 -23 -16 -21 -19 11 -18 -21 -16 -9 11 27 -5 -6 13 11 3 -6 18 10 7 -9 -17 20 -9 4 -14 8 -10 7 3 -15 26 8 8 15 3 28 -4 -22 8 10 -24 11 -6 -15 -7 -35 -4 -12 12 -13 -30 13 28 21 -15 25 24 19 -7 -22 -1 14 -7 -8 24 -2 -38 28 31 -38 11 22 21 6 24 -12 -5 14 8 -16 14 34 7 -3 -6 -21 -10 30 -10 2 -8 -3 9 9 -6 -19 -26 -23 4 10 35 5 5 5 25 -6 12 -18 17 -5 30 0 18 2 0 -20 0 11 8 5 -7 28 -16 13 18 4 -2 7 -1 2 2 7 -11 -35 -19 -5 6 27 17 -46 -30 -13 3 -17 1 -1 43 17 -3 51 -15 -17 34 21 7 33 7 -4 16 -3 22 -7 8 1 4 2 -7 -30 1 -7 -8 -37 -18 -4 16 -12 22 9 -5 -6 33 -7 -18 29 22 6 19 -18 -16 6 -23 12 5 -13 4 7 -14 6 15 -5 -20 -4 -19 8 29 -9 33 -10 4 17 -14 19 -4 -17 -11 -1 9 1 -20 -2 9 -3 15 -1 15 -4 38 -4 -12 -22 -16 7 -30 -14 -19 -18 4 10 25 -10 -7 8 2 22 -23 8 -13 0 -9 -10 6 14 0 -3 22 2 6 13 1 21 -13 -17 -17 -14 2 21 27 -7 22 -5 10 -6 -33 -16 24 -32 7 17 21 46 7 -2 24 7 2 13 -6 14 -9 20 32 3 -10 -31 1 5 17 2 -10 -2 -2 4 -2 12 3 -8 10 -16 -50 -13 -13 -23 -12 -22 10 -6 -1 -12 -3 -17 -12 14 20 12 1 1 42 5 -9 -25 -6 -10 44 12 -5 -10 9 11 21 5 -1 -3 5 48 22 -20 -30 -19 -15 6 -16 -11 -38 -23 -18 -2 -23 -9 -4 3 30